<?xml version="1.0"?>
<opencv_storage>
<stage2>
  <maxWeakCount>7</maxWeakCount>
  <stageThreshold>-6.5554344654083252e-01</stageThreshold>
  <weakClassifiers>
    <_>
      <internalNodes>
        0 -1 53715 -6.2004416249692440e-03</internalNodes>
      <leafValues>
        9.2982459068298340e-01 -4.8328268527984619e-01</leafValues></_>
    <_>
      <internalNodes>
        0 -1 118612 -4.3267961591482162e-03</internalNodes>
      <leafValues>
        5.3706914186477661e-01 -8.7276208400726318e-01</leafValues></_>
    <_>
      <internalNodes>
        0 -1 93031 4.2441273108124733e-03</internalNodes>
      <leafValues>
        -5.6896257400512695e-01 7.7544134855270386e-01</leafValues></_>
    <_>
      <internalNodes>
        0 -1 0 -3.3552951208548620e-05</internalNodes>
      <leafValues>
        -1. 4.3804571032524109e-01</leafValues></_>
    <_>
      <internalNodes>
        0 -1 60166 -6.4687482081353664e-03</internalNodes>
      <leafValues>
        9.4621217250823975e-01 -5.2045553922653198e-01</leafValues></_>
    <_>
      <internalNodes>
        0 -1 0 1.8282858945894986e-05</internalNodes>
      <leafValues>
        4.8864924907684326e-01 -1.</leafValues></_>
    <_>
      <internalNodes>
        0 -1 76306 -1.8838912248611450e-02</internalNodes>
      <leafValues>
        9.8492866754531860e-01 -5.4660677909851074e-01</leafValues></_></weakClassifiers></stage2>
</opencv_storage>
